<?xml version="1.0"?>
<opencv_storage>
<my_svm type_id="opencv-ml-svm">
  <svm_type>C_SVC</svm_type>
  <kernel><type>LINEAR</type></kernel>
  <C>1.</C>
  <term_criteria><epsilon>2.2204460492503131e-16</epsilon>
    <iterations>100</iterations></term_criteria>
  <var_all>768</var_all>
  <var_count>768</var_count>
  <class_count>2</class_count>
  <class_labels type_id="opencv-matrix">
    <rows>1</rows>
    <cols>2</cols>
    <dt>i</dt>
    <data>
      0 1</data></class_labels>
  <sv_total>1</sv_total>
  <support_vectors>
    <_>
      1.04715093e-03 5.87945455e-04 7.91948405e-04 3.48835398e-04
      6.41916413e-04 4.02571284e-04 2.99419218e-04 8.41395289e-04
      7.64773460e-04 8.86263559e-04 6.86452084e-04 6.54440722e-04
      7.96730223e-04 1.10320176e-03 1.02589652e-03 5.20319561e-04
      7.76563305e-04 1.14892272e-03 6.63109764e-04 7.76941306e-04
      6.96929637e-04 3.67745757e-04 6.32232637e-04 5.49948018e-04
      7.64539640e-04 7.28870451e-04 5.76652994e-04 1.59510091e-04
      5.18219429e-04 -8.08888872e-05 5.43353148e-04 -2.33762170e-04
      7.07262720e-04 -9.28395457e-05 2.55629886e-04 7.63826611e-05
      4.89319849e-04 3.82638158e-04 5.87924733e-04 5.18519315e-04
      2.54999002e-04 1.30882690e-04 2.85996211e-04 -1.38442410e-04
      4.69586375e-05 3.55734839e-04 2.66990450e-04 1.24320723e-04
      2.91600154e-04 3.22127395e-04 -1.22589418e-05 2.39601999e-04
      4.15856717e-04 1.34152098e-04 1.67071761e-04 2.55638937e-04
      -2.15156615e-04 2.02345822e-04 1.82214819e-04 -6.59752550e-05
      2.48908240e-04 1.05539475e-04 -1.11134919e-04 5.80014466e-06
      1.03727238e-04 3.60496633e-04 2.58436194e-04 3.22248379e-04
      3.40687548e-04 4.75552661e-04 3.34827899e-04 1.38198593e-04
      2.51735735e-04 2.44260737e-04 2.97015329e-04 3.64676904e-04
      1.76074973e-04 4.14954760e-04 1.89799597e-04 2.94977828e-04
      3.63336818e-04 5.74134872e-04 4.44258156e-04 4.26879094e-04
      5.78409352e-04 4.05044877e-04 6.62225531e-04 4.50761290e-04
      3.14708217e-04 3.51655326e-04 5.01305563e-04 2.77923478e-04
      6.19585917e-04 3.17105150e-04 6.05139416e-04 1.12538575e-03
      4.30400803e-04 7.95671949e-04 1.00134593e-03 5.19237947e-04
      1.12594059e-03 1.09042868e-03 7.34633184e-04 1.29282521e-03
      8.86236783e-04 1.12331868e-03 7.81456940e-04 8.21917376e-04
      8.80580570e-04 5.79477404e-04 5.09722740e-04 8.41974630e-04
      8.30650621e-04 8.82607768e-04 5.91040414e-04 6.40479557e-04
      7.42607866e-04 5.43873524e-04 7.75042688e-04 6.21868239e-04
      3.18240054e-04 3.85340099e-04 6.49116584e-04 -7.90303147e-06
      3.78892088e-04 5.67146053e-04 3.83162609e-04 1.33398673e-04
      -2.77084491e-05 3.27440182e-04 5.09934442e-04 2.99209816e-04
      3.29364440e-04 5.10293001e-04 6.91381400e-04 -3.41032050e-04
      -1.66366794e-04 -1.66349011e-04 2.35298594e-05 -4.29212756e-04
      -4.63391829e-04 -4.16395254e-04 -2.53656879e-04 -5.63479261e-04
      -3.28517432e-04 -4.13771224e-04 -7.57846283e-04 -4.54013876e-04
      -4.71869047e-04 -9.31415183e-04 -1.03725365e-03 -7.52576627e-04
      -3.40491475e-04 -8.00347480e-04 -8.12925922e-04 -4.02924197e-04
      -3.15881771e-04 -2.26879347e-04 -4.38079122e-04 -7.20052572e-04
      -4.96437482e-04 -1.64901430e-04 -6.56639633e-04 -4.46221704e-04
      -2.74852966e-04 -3.31413437e-04 -6.18821068e-04 -4.85148717e-04
      -6.61163765e-04 -3.72540613e-04 -7.79374037e-04 -2.92714627e-04
      -4.03220969e-04 -2.21916707e-04 -3.93285445e-04 -5.45357470e-04
      -1.37764975e-04 -3.49934300e-04 -2.76265258e-04 -3.19161598e-04
      -3.63604457e-04 -4.74892644e-04 -4.19079239e-04 -4.74764413e-04
      -2.84880865e-04 -2.45492556e-04 -4.60206415e-04 -3.07666778e-05
      -7.03276659e-04 -1.04774343e-04 -6.05454727e-04 -3.03069100e-04
      -2.80358363e-04 -3.11229436e-04 -6.57423108e-04 -3.79062083e-04
      -5.70646196e-04 -6.98223652e-04 -2.62268499e-04 -4.52632725e-04
      -6.74878072e-04 -6.26650406e-04 -7.90992577e-04 -5.37567888e-04
      -6.86550862e-04 -7.58124166e-04 -5.96783299e-04 -5.55077102e-04
      -6.12881850e-04 -4.06094128e-04 -6.36173238e-04 -4.17766918e-04
      -6.12555246e-04 -4.17766918e-04 -6.98223652e-04 -2.61535257e-04
      -3.36165744e-04 -7.25255697e-04 -5.61696943e-04 -4.50635358e-04
      -2.68783944e-04 -4.63775068e-04 -6.16394274e-04 -6.84455095e-04
      -4.20774333e-04 -4.26610728e-04 -2.41751899e-04 -3.85810126e-04
      -3.44097905e-04 -7.90992577e-04 -2.03047064e-04 -4.39270836e-04
      -4.50635358e-04 -4.10518231e-04 -4.42376622e-04 -2.91396282e-04
      -5.14276500e-04 -5.68747229e-04 -1.90695224e-04 -4.69735271e-04
      -1.26955696e-04 -3.74864583e-04 -3.52713483e-04 -3.13226803e-04
      -1.53987727e-04 -6.92387286e-04 -4.34444490e-04 -1.05581588e-04
      -2.57850421e-04 -7.41933298e-04 -4.06554958e-04 -6.46082393e-04
      -9.13022595e-05 -8.07016273e-04 -4.51359013e-03 -5.18648280e-03
      1.77017457e-04 6.11514843e-04 3.90539615e-04 2.13522158e-04
      3.23012442e-04 2.33910541e-04 1.27373074e-04 1.12647474e-04
      -3.35518926e-05 5.25971918e-05 8.81664237e-05 -2.02546420e-04
      4.92333747e-05 1.19895005e-04 1.84606743e-05 1.49022788e-04
      -4.13758244e-04 -4.44308331e-04 -3.16570804e-04 -6.87044740e-05
      -2.35295884e-05 6.55966278e-06 -3.04441579e-04 -1.20500001e-04
      1.01923804e-04 -2.46678464e-05 1.05992222e-04 3.29327682e-04
      -2.69022596e-04 -1.94169465e-04 -2.75764614e-04 9.18959195e-05
      -1.19454548e-04 1.96116627e-04 2.35404936e-04 3.05635651e-04
      1.06804328e-04 3.60265403e-04 -8.47363553e-05 1.20580058e-04
      4.11766639e-04 3.07669281e-04 5.06669516e-04 1.70744988e-05
      5.23504685e-04 3.70398775e-04 3.15865938e-04 1.51855609e-04
      7.83970027e-05 4.04111168e-04 6.84173196e-04 2.30678037e-04
      3.24507331e-04 8.74621735e-04 4.21990611e-04 3.84359242e-04
      4.18728538e-04 7.35052628e-04 3.25179659e-04 7.89360492e-04
      2.28582387e-04 4.30063519e-04 5.48595446e-04 1.95060755e-04
      2.41850299e-04 5.91385120e-04 2.52823898e-04 2.02320138e-04
      5.59755601e-04 6.70519308e-04 5.00866736e-04 2.23533309e-04
      3.68571753e-04 4.45773447e-04 3.34894663e-04 1.00551544e-04
      1.00978839e-04 3.62168736e-04 1.18520184e-04 2.85101269e-04
      7.85930897e-05 5.88811527e-04 3.92903894e-04 9.76176991e-04
      2.87960371e-04 1.04713952e-03 4.06682375e-04 1.04886398e-03
      1.66067312e-05 3.84166895e-04 2.18081812e-04 -1.10587431e-03
      3.81490419e-04 -1.73890818e-04 -4.91155079e-04 2.39496629e-04
      -3.39973718e-04 -3.02884117e-04 -1.36364208e-04 8.41663714e-05
      4.56936134e-04 1.44380669e-04 -1.59452407e-04 -2.68474221e-04
      -3.15307145e-04 1.11840768e-06 3.01400753e-04 -1.23742859e-06
      -1.23978491e-04 -4.30268294e-04 -1.21666031e-04 -5.44391805e-04
      -1.35615173e-05 5.51584308e-05 -2.99147941e-04 -1.54134381e-04
      -2.82752648e-04 -4.14633192e-04 1.73614710e-04 -5.97275037e-04
      1.33153182e-04 -7.20168871e-04 -2.42076989e-04 -4.93237108e-04
      1.50586988e-04 -4.57702496e-04 9.92243586e-05 1.97010406e-04
      -7.90756676e-05 -1.02089194e-04 -3.28905735e-04 -1.90712628e-04
      3.90404930e-05 4.03167709e-04 1.25805527e-04 1.78384216e-04
      2.97511549e-04 3.65084736e-04 6.83922321e-04 5.34559891e-04
      3.60695238e-04 4.46638849e-04 5.61787689e-04 1.53121306e-04
      -1.70114887e-04 3.18237180e-05 -6.12410149e-05 -1.24843122e-04
      -2.02097101e-04 -1.37709867e-04 -1.11548245e-04 -4.74339962e-04
      -6.20493433e-04 -2.31200640e-04 -2.60858884e-04 -3.95117881e-04
      -4.12492838e-04 -3.23169428e-04 -4.76366607e-04 -1.88334583e-04
      -4.82904783e-04 -2.22713701e-04 -9.75327421e-05 1.87651982e-04
      4.95826971e-05 -4.04990104e-04 -6.65864354e-05 -3.22754058e-04
      -1.60028008e-04 -1.48582330e-04 -3.08283750e-04 -1.58290713e-04
      -2.38576922e-05 -2.12778177e-04 -2.76523730e-04 -1.06573323e-04
      -3.49182723e-04 -1.00100442e-04 -4.92247636e-04 -2.13535779e-04
      -2.93614226e-04 -5.76685416e-04 -1.62146916e-05 -2.89202173e-04
      -3.42685613e-04 -4.53545144e-05 -1.51990374e-04 -3.91776353e-04
      -1.73418637e-04 -1.34713788e-04 -2.25659402e-04 -1.24860717e-05
      6.10531424e-05 -1.92692576e-04 -1.30622298e-04 -2.48728174e-04
      -4.07085841e-04 -4.07412444e-04 -2.24475312e-04 -4.32675326e-04
      -8.94928326e-06 -2.58756045e-04 -3.13325203e-04 -4.69284423e-04
      -6.60993246e-05 -1.98122303e-04 -1.35897877e-04 -3.07488779e-04
      -2.93041201e-04 1.37075942e-04 -4.71380190e-04 -1.95114917e-04
      8.24511444e-05 -3.48092610e-04 -4.55392592e-06 -1.99440634e-04
      -1.24434970e-04 -2.71340512e-04 -3.36165744e-04 -2.05480337e-05
      -2.17955472e-04 -1.01921003e-04 -1.13285532e-04 -5.08440076e-04
      -1.29279637e-04 -1.65888749e-04 -3.30329349e-04 -2.70330464e-04
      -3.38261481e-04 -1.70511223e-04 -3.78963683e-04 6.02940381e-05
      -2.75433616e-04 -2.59439490e-04 -1.13285532e-04 -8.64756730e-05
      -2.50595709e-04 -2.23791867e-04 -2.65375886e-04 -4.59479168e-04
      -2.45394185e-04 -8.03186995e-05 -2.35012722e-05 -2.64265866e-04
      -1.05125182e-04 -2.64592469e-04 -4.16138537e-05 2.03883919e-05
      -1.60150725e-04 -5.15175125e-05 2.42381197e-04 -4.00708705e-05
      -1.79989904e-04 2.32142862e-04 5.19141540e-05 2.12312164e-03 0. 0.
      4.08243941e-05 3.21849911e-05 -3.93882947e-05 1.18075608e-04
      -1.38231444e-05 -8.38797278e-05 -2.05034894e-06 -8.72937962e-05
      3.18735292e-05 1.20853219e-04 -1.56136462e-04 -5.65747439e-04
      -5.73731028e-04 -3.59916798e-04 -4.31490073e-04 -3.81162245e-04
      -4.59938834e-04 -6.60890131e-04 -5.39672445e-04 -1.58867086e-04
      -2.97172628e-05 -2.42435359e-04 -5.15366613e-04 -5.34368155e-04
      -1.54314330e-04 -3.49934300e-04 -4.03547543e-04 -5.32469188e-04
      -9.66377993e-05 -3.46426270e-04 -5.41541143e-04 2.52031477e-05
      -2.62496702e-04 -5.55537932e-04 -6.59855839e-04 -8.71686090e-04
      -8.10557744e-04 -6.98259508e-04 -1.09060947e-03 -8.44610273e-04
      -1.20060914e-03 -1.11048634e-03 -1.07344904e-03 -6.88559725e-04
      -1.14113674e-03 -7.73278298e-04 -8.77535844e-04 -1.00407866e-03
      -1.10486581e-03 -7.29575811e-04 -8.39520479e-04 -7.83713127e-04
      -9.24845634e-04 -1.72064581e-04 -2.09759382e-04 -4.98388952e-04
      -4.66894067e-04 -3.94716597e-04 -9.00887608e-05 -6.13225682e-04
      -3.43913707e-04 2.70816294e-04 -1.06532090e-04 -4.50106803e-04
      -4.15783754e-04 -5.69746597e-04 -4.65329766e-04 1.92388499e-04
      4.29343869e-04 2.52276397e-04 -4.32182533e-05 -6.17719721e-04
      2.90338532e-04 3.79028876e-04 -4.86828882e-04 1.54052905e-04
      -1.41661047e-04 1.55909205e-04 -3.25489455e-05 -2.37316577e-04
      -1.65126039e-04 5.13152743e-04 -5.62455098e-04 2.02372699e-04
      1.65013029e-04 2.12153740e-04 1.63915887e-04 -1.96903769e-04
      -3.38431011e-04 2.06942917e-04 6.43629115e-04 3.09697243e-05
      -6.70718946e-05 3.16589867e-04 6.51998620e-04 9.81457779e-05
      1.55136207e-04 4.51143016e-04 2.57636333e-04 -1.12473506e-04
      4.47801489e-04 6.45187974e-04 7.60858064e-04 4.46957099e-04
      5.82975510e-04 4.37762239e-04 4.26077284e-04 5.72525256e-04
      1.78337796e-04 4.69837250e-05 -3.04445683e-04 -1.98470545e-04
      -1.40626522e-04 1.98137001e-04 -1.14824070e-04 2.01951290e-04
      -1.28610787e-04 -2.52290803e-04 -2.87711708e-04 -5.88865951e-04
      -8.94864570e-05 -3.22749635e-04 9.33322881e-05 -3.61565879e-04
      -2.33688363e-04 -2.31303799e-04 -3.64174281e-04 -3.78105207e-04
      -2.45884527e-04 2.47272430e-04 2.78884036e-05 1.74165834e-05
      6.25673740e-04 2.90587748e-04 1.72910048e-04 4.75369743e-04
      1.02870268e-04 4.49990679e-04 3.18414735e-04 2.04496406e-04
      3.16655205e-04 6.65347383e-04 3.89538152e-04 4.35935537e-04
      9.82063357e-04 3.99563374e-04 1.49526648e-04 4.23795078e-04
      3.48839123e-04 3.19914179e-05 3.06048285e-04 2.66589719e-04
      6.11143041e-05 3.25824978e-04 5.48756507e-05 6.48839283e-04
      1.64168508e-04 6.05124165e-04 4.75003217e-05 -6.92110407e-05
      -1.89257589e-05 -1.05539475e-04 1.66049678e-04 2.61209061e-04
      8.37953121e-05 8.13427105e-05 -2.47981021e-04 1.37225754e-04
      -1.04904073e-04 -4.11932924e-05 1.20620578e-04 -9.13383192e-05
      1.20225421e-04 4.00187491e-05 -5.68305441e-05 9.18501755e-05
      1.45555794e-04 4.81887182e-05 1.71689302e-04 2.25068332e-04
      1.69435079e-04 -4.22789926e-05 -4.01832476e-05 1.17643533e-04
      4.44070138e-05 1.76328496e-04 -9.25099303e-05 2.26054559e-04
      2.39718705e-04 1.96169189e-04 9.58130186e-05 -1.77228940e-04
      7.61897536e-05 1.23048929e-04 2.24741729e-04 9.76936717e-05
      2.64736678e-04 1.14401819e-05 1.15198462e-04 8.90780793e-05
      3.53891664e-05 -2.07448120e-05 -8.62534944e-05 1.63528952e-04
      2.64469782e-05 1.28460350e-04 4.01171383e-05 1.63202349e-04
      -1.46802031e-05 1.40233155e-04 2.62634916e-04 1.79294846e-04
      6.90227389e-05 2.24415140e-04 1.66049678e-04 7.51797124e-05
      2.68372940e-04 1.01983547e-04 2.94493308e-04 1.96693727e-04
      2.61222624e-04 -1.60985164e-05 2.04329539e-04 4.22128833e-05
      1.03425664e-04 1.95387343e-04 1.54586756e-04 1.24140657e-04
      1.39906551e-04 5.72196768e-05 1.06635860e-04 1.72471133e-04
      8.19277702e-05 6.37335106e-05 4.08005872e-05 1.79294846e-04
      1.89649334e-04 9.40574246e-05 1.66733123e-04 9.16290664e-05
      1.48848747e-04 1.81033742e-04 9.94325601e-05 3.85399559e-04
      1.17667751e-05 3.42497195e-04 3.36000085e-04 5.86570881e-04
      4.16819414e-04 4.16750234e-04 5.71693410e-04 9.62458027e-04
      7.72304833e-04 4.21894295e-03</_></support_vectors>
  <decision_functions>
    <_>
      <sv_count>1</sv_count>
      <rho>-1.3987305949194426e-01</rho>
      <alpha>
        1.</alpha>
      <index>
        0</index></_></decision_functions></my_svm>
</opencv_storage>
